digraph Tree {
node [shape=box, style="filled, rounded", color="black", fontname="helvetica"] ;
edge [fontname="helvetica"] ;
0 [label="Checking account_little <= 0.5\ngini = 0.43\nsamples = 646\nvalue = [317, 683]\nclass = 1: bad", fillcolor="#95caf1"] ;
1 [label="Checking account_moderate <= 0.5\ngini = 0.36\nsamples = 460\nvalue = [163, 539]\nclass = 1: bad", fillcolor="#75bbed"] ;
0 -> 1 [labeldistance=2.5, labelangle=45, headlabel="True"] ;
2 [label="Monthly pay <= 0.01\ngini = 0.23\nsamples = 286\nvalue = [58, 380]\nclass = 1: bad", fillcolor="#57ace9"] ;
1 -> 2 ;
3 [label="Monthly pay <= 0.01\ngini = 0.46\nsamples = 16\nvalue = [11, 20]\nclass = 1: bad", fillcolor="#a6d3f3"] ;
2 -> 3 ;
4 [label="Monthly pay <= 0.01\ngini = 0.38\nsamples = 15\nvalue = [7, 20]\nclass = 1: bad", fillcolor="#7ebfee"] ;
3 -> 4 ;
5 [label="Monthly pay <= 0.01\ngini = 0.48\nsamples = 9\nvalue = [7, 11]\nclass = 1: bad", fillcolor="#b7dbf6"] ;
4 -> 5 ;
6 [label="Monthly pay <= 0.0\ngini = 0.39\nsamples = 7\nvalue = [4, 11]\nclass = 1: bad", fillcolor="#81c1ee"] ;
5 -> 6 ;
7 [label="gini = 0.0\nsamples = 1\nvalue = [1, 0]\nclass = 0: good", fillcolor="#e58139"] ;
6 -> 7 ;
8 [label="Credit amount <= 0.04\ngini = 0.34\nsamples = 6\nvalue = [3, 11]\nclass = 1: bad", fillcolor="#6fb8ec"] ;
6 -> 8 ;
9 [label="gini = 0.0\nsamples = 4\nvalue = [0, 8]\nclass = 1: bad", fillcolor="#399de5"] ;
8 -> 9 ;
10 [label="Monthly pay <= 0.01\ngini = 0.5\nsamples = 2\nvalue = [3, 3]\nclass = 0: good", fillcolor="#ffffff"] ;
8 -> 10 ;
11 [label="gini = 0.0\nsamples = 1\nvalue = [3, 0]\nclass = 0: good", fillcolor="#e58139"] ;
10 -> 11 ;
12 [label="gini = 0.0\nsamples = 1\nvalue = [0, 3]\nclass = 1: bad", fillcolor="#399de5"] ;
10 -> 12 ;
13 [label="gini = 0.0\nsamples = 2\nvalue = [3, 0]\nclass = 0: good", fillcolor="#e58139"] ;
5 -> 13 ;
14 [label="gini = 0.0\nsamples = 6\nvalue = [0, 9]\nclass = 1: bad", fillcolor="#399de5"] ;
4 -> 14 ;
15 [label="gini = 0.0\nsamples = 1\nvalue = [4, 0]\nclass = 0: good", fillcolor="#e58139"] ;
3 -> 15 ;
16 [label="Credit amount <= 0.4\ngini = 0.2\nsamples = 270\nvalue = [47, 360]\nclass = 1: bad", fillcolor="#53aae8"] ;
2 -> 16 ;
17 [label="Credit amount <= 0.13\ngini = 0.19\nsamples = 253\nvalue = [41, 342]\nclass = 1: bad", fillcolor="#51a9e8"] ;
16 -> 17 ;
18 [label="Credit amount <= 0.13\ngini = 0.24\nsamples = 158\nvalue = [33, 202]\nclass = 1: bad", fillcolor="#59ade9"] ;
17 -> 18 ;
19 [label="Credit amount <= 0.03\ngini = 0.24\nsamples = 157\nvalue = [32, 202]\nclass = 1: bad", fillcolor="#58ade9"] ;
18 -> 19 ;
20 [label="gini = 0.0\nsamples = 9\nvalue = [0, 15]\nclass = 1: bad", fillcolor="#399de5"] ;
19 -> 20 ;
21 [label="Monthly pay <= 0.08\ngini = 0.25\nsamples = 148\nvalue = [32, 187]\nclass = 1: bad", fillcolor="#5baee9"] ;
19 -> 21 ;
22 [label="Credit amount <= 0.03\ngini = 0.27\nsamples = 133\nvalue = [32, 164]\nclass = 1: bad", fillcolor="#60b0ea"] ;
21 -> 22 ;
23 [label="gini = 0.0\nsamples = 2\nvalue = [5, 0]\nclass = 0: good", fillcolor="#e58139"] ;
22 -> 23 ;
24 [label="Credit amount <= 0.04\ngini = 0.24\nsamples = 131\nvalue = [27, 164]\nclass = 1: bad", fillcolor="#5aade9"] ;
22 -> 24 ;
25 [label="gini = 0.0\nsamples = 9\nvalue = [0, 17]\nclass = 1: bad", fillcolor="#399de5"] ;
24 -> 25 ;
26 [label="Credit amount <= 0.04\ngini = 0.26\nsamples = 122\nvalue = [27, 147]\nclass = 1: bad", fillcolor="#5dafea"] ;
24 -> 26 ;
27 [label="gini = 0.0\nsamples = 1\nvalue = [2, 0]\nclass = 0: good", fillcolor="#e58139"] ;
26 -> 27 ;
28 [label="Credit amount <= 0.09\ngini = 0.25\nsamples = 121\nvalue = [25, 147]\nclass = 1: bad", fillcolor="#5baee9"] ;
26 -> 28 ;
29 [label="Credit amount <= 0.06\ngini = 0.2\nsamples = 80\nvalue = [13, 101]\nclass = 1: bad", fillcolor="#52aae8"] ;
28 -> 29 ;
30 [label="Credit amount <= 0.06\ngini = 0.3\nsamples = 31\nvalue = [8, 35]\nclass = 1: bad", fillcolor="#66b3eb"] ;
29 -> 30 ;
31 [label="Monthly pay <= 0.03\ngini = 0.17\nsamples = 24\nvalue = [3, 30]\nclass = 1: bad", fillcolor="#4da7e8"] ;
30 -> 31 ;
32 [label="gini = 0.0\nsamples = 9\nvalue = [0, 13]\nclass = 1: bad", fillcolor="#399de5"] ;
31 -> 32 ;
33 [label="Credit amount <= 0.05\ngini = 0.26\nsamples = 15\nvalue = [3, 17]\nclass = 1: bad", fillcolor="#5caeea"] ;
31 -> 33 ;
34 [label="gini = 0.0\nsamples = 1\nvalue = [1, 0]\nclass = 0: good", fillcolor="#e58139"] ;
33 -> 34 ;
35 [label="Monthly pay <= 0.04\ngini = 0.19\nsamples = 14\nvalue = [2, 17]\nclass = 1: bad", fillcolor="#50a9e8"] ;
33 -> 35 ;
36 [label="gini = 0.0\nsamples = 6\nvalue = [0, 9]\nclass = 1: bad", fillcolor="#399de5"] ;
35 -> 36 ;
37 [label="Monthly pay <= 0.04\ngini = 0.32\nsamples = 8\nvalue = [2, 8]\nclass = 1: bad", fillcolor="#6ab6ec"] ;
35 -> 37 ;
38 [label="gini = 0.0\nsamples = 1\nvalue = [2, 0]\nclass = 0: good", fillcolor="#e58139"] ;
37 -> 38 ;
39 [label="gini = 0.0\nsamples = 7\nvalue = [0, 8]\nclass = 1: bad", fillcolor="#399de5"] ;
37 -> 39 ;
40 [label="Credit amount <= 0.06\ngini = 0.5\nsamples = 7\nvalue = [5, 5]\nclass = 0: good", fillcolor="#ffffff"] ;
30 -> 40 ;
41 [label="gini = 0.0\nsamples = 2\nvalue = [4, 0]\nclass = 0: good", fillcolor="#e58139"] ;
40 -> 41 ;
42 [label="Credit amount <= 0.06\ngini = 0.28\nsamples = 5\nvalue = [1, 5]\nclass = 1: bad", fillcolor="#61b1ea"] ;
40 -> 42 ;
43 [label="gini = 0.0\nsamples = 4\nvalue = [0, 5]\nclass = 1: bad", fillcolor="#399de5"] ;
42 -> 43 ;
44 [label="gini = 0.0\nsamples = 1\nvalue = [1, 0]\nclass = 0: good", fillcolor="#e58139"] ;
42 -> 44 ;
45 [label="Credit amount <= 0.07\ngini = 0.13\nsamples = 49\nvalue = [5, 66]\nclass = 1: bad", fillcolor="#48a4e7"] ;
29 -> 45 ;
46 [label="gini = 0.0\nsamples = 13\nvalue = [0, 20]\nclass = 1: bad", fillcolor="#399de5"] ;
45 -> 46 ;
47 [label="Monthly pay <= 0.06\ngini = 0.18\nsamples = 36\nvalue = [5, 46]\nclass = 1: bad", fillcolor="#4fa8e8"] ;
45 -> 47 ;
48 [label="Monthly pay <= 0.02\ngini = 0.15\nsamples = 35\nvalue = [4, 46]\nclass = 1: bad", fillcolor="#4aa6e7"] ;
47 -> 48 ;
49 [label="gini = 0.0\nsamples = 11\nvalue = [0, 13]\nclass = 1: bad", fillcolor="#399de5"] ;
48 -> 49 ;
50 [label="Monthly pay <= 0.03\ngini = 0.19\nsamples = 24\nvalue = [4, 33]\nclass = 1: bad", fillcolor="#51a9e8"] ;
48 -> 50 ;
51 [label="gini = 0.0\nsamples = 2\nvalue = [2, 0]\nclass = 0: good", fillcolor="#e58139"] ;
50 -> 51 ;
52 [label="Credit amount <= 0.09\ngini = 0.11\nsamples = 22\nvalue = [2, 33]\nclass = 1: bad", fillcolor="#45a3e7"] ;
50 -> 52 ;
53 [label="Credit amount <= 0.07\ngini = 0.06\nsamples = 19\nvalue = [1, 30]\nclass = 1: bad", fillcolor="#40a0e6"] ;
52 -> 53 ;
54 [label="gini = 0.0\nsamples = 9\nvalue = [0, 17]\nclass = 1: bad", fillcolor="#399de5"] ;
53 -> 54 ;
55 [label="Credit amount <= 0.07\ngini = 0.13\nsamples = 10\nvalue = [1, 13]\nclass = 1: bad", fillcolor="#48a5e7"] ;
53 -> 55 ;
56 [label="gini = 0.0\nsamples = 1\nvalue = [1, 0]\nclass = 0: good", fillcolor="#e58139"] ;
55 -> 56 ;
57 [label="gini = 0.0\nsamples = 9\nvalue = [0, 13]\nclass = 1: bad", fillcolor="#399de5"] ;
55 -> 57 ;
58 [label="Credit amount <= 0.09\ngini = 0.38\nsamples = 3\nvalue = [1, 3]\nclass = 1: bad", fillcolor="#7bbeee"] ;
52 -> 58 ;
59 [label="gini = 0.0\nsamples = 1\nvalue = [1, 0]\nclass = 0: good", fillcolor="#e58139"] ;
58 -> 59 ;
60 [label="gini = 0.0\nsamples = 2\nvalue = [0, 3]\nclass = 1: bad", fillcolor="#399de5"] ;
58 -> 60 ;
61 [label="gini = 0.0\nsamples = 1\nvalue = [1, 0]\nclass = 0: good", fillcolor="#e58139"] ;
47 -> 61 ;
62 [label="Credit amount <= 0.09\ngini = 0.33\nsamples = 41\nvalue = [12, 46]\nclass = 1: bad", fillcolor="#6db7ec"] ;
28 -> 62 ;
63 [label="gini = 0.0\nsamples = 1\nvalue = [3, 0]\nclass = 0: good", fillcolor="#e58139"] ;
62 -> 63 ;
64 [label="Credit amount <= 0.09\ngini = 0.27\nsamples = 40\nvalue = [9, 46]\nclass = 1: bad", fillcolor="#60b0ea"] ;
62 -> 64 ;
65 [label="Monthly pay <= 0.04\ngini = 0.48\nsamples = 4\nvalue = [2, 3]\nclass = 1: bad", fillcolor="#bddef6"] ;
64 -> 65 ;
66 [label="Monthly pay <= 0.03\ngini = 0.44\nsamples = 2\nvalue = [2, 1]\nclass = 0: good", fillcolor="#f2c09c"] ;
65 -> 66 ;
67 [label="gini = 0.0\nsamples = 1\nvalue = [0, 1]\nclass = 1: bad", fillcolor="#399de5"] ;
66 -> 67 ;
68 [label="gini = 0.0\nsamples = 1\nvalue = [2, 0]\nclass = 0: good", fillcolor="#e58139"] ;
66 -> 68 ;
69 [label="gini = 0.0\nsamples = 2\nvalue = [0, 2]\nclass = 1: bad", fillcolor="#399de5"] ;
65 -> 69 ;
70 [label="Credit amount <= 0.1\ngini = 0.24\nsamples = 36\nvalue = [7, 43]\nclass = 1: bad", fillcolor="#59ade9"] ;
64 -> 70 ;
71 [label="gini = 0.0\nsamples = 4\nvalue = [0, 8]\nclass = 1: bad", fillcolor="#399de5"] ;
70 -> 71 ;
72 [label="Credit amount <= 0.1\ngini = 0.28\nsamples = 32\nvalue = [7, 35]\nclass = 1: bad", fillcolor="#61b1ea"] ;
70 -> 72 ;
73 [label="gini = 0.0\nsamples = 1\nvalue = [1, 0]\nclass = 0: good", fillcolor="#e58139"] ;
72 -> 73 ;
74 [label="Monthly pay <= 0.07\ngini = 0.25\nsamples = 31\nvalue = [6, 35]\nclass = 1: bad", fillcolor="#5baee9"] ;
72 -> 74 ;
75 [label="Credit amount <= 0.12\ngini = 0.15\nsamples = 27\nvalue = [3, 33]\nclass = 1: bad", fillcolor="#4ba6e7"] ;
74 -> 75 ;
76 [label="Credit amount <= 0.11\ngini = 0.11\nsamples = 24\nvalue = [2, 31]\nclass = 1: bad", fillcolor="#46a3e7"] ;
75 -> 76 ;
77 [label="Credit amount <= 0.1\ngini = 0.28\nsamples = 10\nvalue = [2, 10]\nclass = 1: bad", fillcolor="#61b1ea"] ;
76 -> 77 ;
78 [label="Monthly pay <= 0.05\ngini = 0.17\nsamples = 9\nvalue = [1, 10]\nclass = 1: bad", fillcolor="#4da7e8"] ;
77 -> 78 ;
79 [label="Credit amount <= 0.1\ngini = 0.32\nsamples = 5\nvalue = [1, 4]\nclass = 1: bad", fillcolor="#6ab6ec"] ;
78 -> 79 ;
80 [label="gini = 0.0\nsamples = 4\nvalue = [0, 4]\nclass = 1: bad", fillcolor="#399de5"] ;
79 -> 80 ;
81 [label="gini = 0.0\nsamples = 1\nvalue = [1, 0]\nclass = 0: good", fillcolor="#e58139"] ;
79 -> 81 ;
82 [label="gini = 0.0\nsamples = 4\nvalue = [0, 6]\nclass = 1: bad", fillcolor="#399de5"] ;
78 -> 82 ;
83 [label="gini = 0.0\nsamples = 1\nvalue = [1, 0]\nclass = 0: good", fillcolor="#e58139"] ;
77 -> 83 ;
84 [label="gini = 0.0\nsamples = 14\nvalue = [0, 21]\nclass = 1: bad", fillcolor="#399de5"] ;
76 -> 84 ;
85 [label="Monthly pay <= 0.04\ngini = 0.44\nsamples = 3\nvalue = [1, 2]\nclass = 1: bad", fillcolor="#9ccef2"] ;
75 -> 85 ;
86 [label="gini = 0.0\nsamples = 1\nvalue = [1, 0]\nclass = 0: good", fillcolor="#e58139"] ;
85 -> 86 ;
87 [label="gini = 0.0\nsamples = 2\nvalue = [0, 2]\nclass = 1: bad", fillcolor="#399de5"] ;
85 -> 87 ;
88 [label="Credit amount <= 0.11\ngini = 0.48\nsamples = 4\nvalue = [3, 2]\nclass = 0: good", fillcolor="#f6d5bd"] ;
74 -> 88 ;
89 [label="gini = 0.0\nsamples = 2\nvalue = [3, 0]\nclass = 0: good", fillcolor="#e58139"] ;
88 -> 89 ;
90 [label="gini = 0.0\nsamples = 2\nvalue = [0, 2]\nclass = 1: bad", fillcolor="#399de5"] ;
88 -> 90 ;
91 [label="gini = 0.0\nsamples = 15\nvalue = [0, 23]\nclass = 1: bad", fillcolor="#399de5"] ;
21 -> 91 ;
92 [label="gini = 0.0\nsamples = 1\nvalue = [1, 0]\nclass = 0: good", fillcolor="#e58139"] ;
18 -> 92 ;
93 [label="Credit amount <= 0.17\ngini = 0.1\nsamples = 95\nvalue = [8, 140]\nclass = 1: bad", fillcolor="#44a3e6"] ;
17 -> 93 ;
94 [label="gini = 0.0\nsamples = 35\nvalue = [0, 54]\nclass = 1: bad", fillcolor="#399de5"] ;
93 -> 94 ;
95 [label="Monthly pay <= 0.03\ngini = 0.16\nsamples = 60\nvalue = [8, 86]\nclass = 1: bad", fillcolor="#4ba6e7"] ;
93 -> 95 ;
96 [label="gini = 0.0\nsamples = 2\nvalue = [2, 0]\nclass = 0: good", fillcolor="#e58139"] ;
95 -> 96 ;
97 [label="Credit amount <= 0.24\ngini = 0.12\nsamples = 58\nvalue = [6, 86]\nclass = 1: bad", fillcolor="#47a4e7"] ;
95 -> 97 ;
98 [label="Credit amount <= 0.23\ngini = 0.22\nsamples = 28\nvalue = [5, 34]\nclass = 1: bad", fillcolor="#56abe9"] ;
97 -> 98 ;
99 [label="gini = 0.0\nsamples = 20\nvalue = [0, 29]\nclass = 1: bad", fillcolor="#399de5"] ;
98 -> 99 ;
100 [label="Monthly pay <= 0.04\ngini = 0.5\nsamples = 8\nvalue = [5, 5]\nclass = 0: good", fillcolor="#ffffff"] ;
98 -> 100 ;
101 [label="gini = 0.0\nsamples = 1\nvalue = [2, 0]\nclass = 0: good", fillcolor="#e58139"] ;
100 -> 101 ;
102 [label="Credit amount <= 0.24\ngini = 0.47\nsamples = 7\nvalue = [3, 5]\nclass = 1: bad", fillcolor="#b0d8f5"] ;
100 -> 102 ;
103 [label="gini = 0.0\nsamples = 3\nvalue = [0, 4]\nclass = 1: bad", fillcolor="#399de5"] ;
102 -> 103 ;
104 [label="Credit amount <= 0.24\ngini = 0.38\nsamples = 4\nvalue = [3, 1]\nclass = 0: good", fillcolor="#eeab7b"] ;
102 -> 104 ;
105 [label="Credit amount <= 0.24\ngini = 0.5\nsamples = 2\nvalue = [1, 1]\nclass = 0: good", fillcolor="#ffffff"] ;
104 -> 105 ;
106 [label="gini = 0.0\nsamples = 1\nvalue = [1, 0]\nclass = 0: good", fillcolor="#e58139"] ;
105 -> 106 ;
107 [label="gini = 0.0\nsamples = 1\nvalue = [0, 1]\nclass = 1: bad", fillcolor="#399de5"] ;
105 -> 107 ;
108 [label="gini = 0.0\nsamples = 2\nvalue = [2, 0]\nclass = 0: good", fillcolor="#e58139"] ;
104 -> 108 ;
109 [label="Monthly pay <= 0.14\ngini = 0.04\nsamples = 30\nvalue = [1, 52]\nclass = 1: bad", fillcolor="#3d9fe6"] ;
97 -> 109 ;
110 [label="gini = 0.0\nsamples = 25\nvalue = [0, 46]\nclass = 1: bad", fillcolor="#399de5"] ;
109 -> 110 ;
111 [label="Credit amount <= 0.37\ngini = 0.24\nsamples = 5\nvalue = [1, 6]\nclass = 1: bad", fillcolor="#5aade9"] ;
109 -> 111 ;
112 [label="Credit amount <= 0.33\ngini = 0.38\nsamples = 4\nvalue = [1, 3]\nclass = 1: bad", fillcolor="#7bbeee"] ;
111 -> 112 ;
113 [label="gini = 0.0\nsamples = 2\nvalue = [0, 2]\nclass = 1: bad", fillcolor="#399de5"] ;
112 -> 113 ;
114 [label="Monthly pay <= 0.3\ngini = 0.5\nsamples = 2\nvalue = [1, 1]\nclass = 0: good", fillcolor="#ffffff"] ;
112 -> 114 ;
115 [label="gini = 0.0\nsamples = 1\nvalue = [1, 0]\nclass = 0: good", fillcolor="#e58139"] ;
114 -> 115 ;
116 [label="gini = 0.0\nsamples = 1\nvalue = [0, 1]\nclass = 1: bad", fillcolor="#399de5"] ;
114 -> 116 ;
117 [label="gini = 0.0\nsamples = 1\nvalue = [0, 3]\nclass = 1: bad", fillcolor="#399de5"] ;
111 -> 117 ;
118 [label="Monthly pay <= 0.09\ngini = 0.38\nsamples = 17\nvalue = [6, 18]\nclass = 1: bad", fillcolor="#7bbeee"] ;
16 -> 118 ;
119 [label="Credit amount <= 0.43\ngini = 0.5\nsamples = 10\nvalue = [6, 7]\nclass = 1: bad", fillcolor="#e3f1fb"] ;
118 -> 119 ;
120 [label="Credit amount <= 0.4\ngini = 0.32\nsamples = 3\nvalue = [4, 1]\nclass = 0: good", fillcolor="#eca06a"] ;
119 -> 120 ;
121 [label="gini = 0.0\nsamples = 1\nvalue = [2, 0]\nclass = 0: good", fillcolor="#e58139"] ;
120 -> 121 ;
122 [label="Monthly pay <= 0.08\ngini = 0.44\nsamples = 2\nvalue = [2, 1]\nclass = 0: good", fillcolor="#f2c09c"] ;
120 -> 122 ;
123 [label="gini = 0.0\nsamples = 1\nvalue = [0, 1]\nclass = 1: bad", fillcolor="#399de5"] ;
122 -> 123 ;
124 [label="gini = 0.0\nsamples = 1\nvalue = [2, 0]\nclass = 0: good", fillcolor="#e58139"] ;
122 -> 124 ;
125 [label="Monthly pay <= 0.07\ngini = 0.38\nsamples = 7\nvalue = [2, 6]\nclass = 1: bad", fillcolor="#7bbeee"] ;
119 -> 125 ;
126 [label="gini = 0.0\nsamples = 2\nvalue = [0, 2]\nclass = 1: bad", fillcolor="#399de5"] ;
125 -> 126 ;
127 [label="Credit amount <= 0.51\ngini = 0.44\nsamples = 5\nvalue = [2, 4]\nclass = 1: bad", fillcolor="#9ccef2"] ;
125 -> 127 ;
128 [label="gini = 0.0\nsamples = 2\nvalue = [0, 3]\nclass = 1: bad", fillcolor="#399de5"] ;
127 -> 128 ;
129 [label="Credit amount <= 0.68\ngini = 0.44\nsamples = 3\nvalue = [2, 1]\nclass = 0: good", fillcolor="#f2c09c"] ;
127 -> 129 ;
130 [label="gini = 0.0\nsamples = 2\nvalue = [2, 0]\nclass = 0: good", fillcolor="#e58139"] ;
129 -> 130 ;
131 [label="gini = 0.0\nsamples = 1\nvalue = [0, 1]\nclass = 1: bad", fillcolor="#399de5"] ;
129 -> 131 ;
132 [label="gini = 0.0\nsamples = 7\nvalue = [0, 11]\nclass = 1: bad", fillcolor="#399de5"] ;
118 -> 132 ;
133 [label="Credit amount <= 0.66\ngini = 0.48\nsamples = 174\nvalue = [105, 159]\nclass = 1: bad", fillcolor="#bcdef6"] ;
1 -> 133 ;
134 [label="Monthly pay <= 0.05\ngini = 0.46\nsamples = 164\nvalue = [86, 159]\nclass = 1: bad", fillcolor="#a4d2f3"] ;
133 -> 134 ;
135 [label="Monthly pay <= 0.02\ngini = 0.49\nsamples = 96\nvalue = [66, 81]\nclass = 1: bad", fillcolor="#daedfa"] ;
134 -> 135 ;
136 [label="Monthly pay <= 0.01\ngini = 0.49\nsamples = 33\nvalue = [28, 21]\nclass = 0: good", fillcolor="#f8e0ce"] ;
135 -> 136 ;
137 [label="gini = 0.0\nsamples = 1\nvalue = [0, 2]\nclass = 1: bad", fillcolor="#399de5"] ;
136 -> 137 ;
138 [label="Credit amount <= 0.17\ngini = 0.48\nsamples = 32\nvalue = [28, 19]\nclass = 0: good", fillcolor="#f7d7bf"] ;
136 -> 138 ;
139 [label="Monthly pay <= 0.02\ngini = 0.47\nsamples = 31\nvalue = [28, 17]\nclass = 0: good", fillcolor="#f5ceb1"] ;
138 -> 139 ;
140 [label="Monthly pay <= 0.02\ngini = 0.48\nsamples = 30\nvalue = [25, 17]\nclass = 0: good", fillcolor="#f7d7c0"] ;
139 -> 140 ;
141 [label="Monthly pay <= 0.02\ngini = 0.46\nsamples = 28\nvalue = [25, 14]\nclass = 0: good", fillcolor="#f4c8a8"] ;
140 -> 141 ;
142 [label="Monthly pay <= 0.02\ngini = 0.48\nsamples = 24\nvalue = [21, 14]\nclass = 0: good", fillcolor="#f6d5bd"] ;
141 -> 142 ;
143 [label="Credit amount <= 0.08\ngini = 0.46\nsamples = 23\nvalue = [21, 12]\nclass = 0: good", fillcolor="#f4c9aa"] ;
142 -> 143 ;
144 [label="Credit amount <= 0.05\ngini = 0.5\nsamples = 15\nvalue = [12, 10]\nclass = 0: good", fillcolor="#fbeade"] ;
143 -> 144 ;
145 [label="Credit amount <= 0.02\ngini = 0.41\nsamples = 9\nvalue = [10, 4]\nclass = 0: good", fillcolor="#efb388"] ;
144 -> 145 ;
146 [label="Credit amount <= 0.01\ngini = 0.48\nsamples = 3\nvalue = [2, 3]\nclass = 1: bad", fillcolor="#bddef6"] ;
145 -> 146 ;
147 [label="Credit amount <= 0.01\ngini = 0.44\nsamples = 2\nvalue = [2, 1]\nclass = 0: good", fillcolor="#f2c09c"] ;
146 -> 147 ;
148 [label="gini = 0.0\nsamples = 1\nvalue = [0, 1]\nclass = 1: bad", fillcolor="#399de5"] ;
147 -> 148 ;
149 [label="gini = 0.0\nsamples = 1\nvalue = [2, 0]\nclass = 0: good", fillcolor="#e58139"] ;
147 -> 149 ;
150 [label="gini = 0.0\nsamples = 1\nvalue = [0, 2]\nclass = 1: bad", fillcolor="#399de5"] ;
146 -> 150 ;
151 [label="Monthly pay <= 0.01\ngini = 0.2\nsamples = 6\nvalue = [8, 1]\nclass = 0: good", fillcolor="#e89152"] ;
145 -> 151 ;
152 [label="gini = 0.0\nsamples = 4\nvalue = [7, 0]\nclass = 0: good", fillcolor="#e58139"] ;
151 -> 152 ;
153 [label="Monthly pay <= 0.02\ngini = 0.5\nsamples = 2\nvalue = [1, 1]\nclass = 0: good", fillcolor="#ffffff"] ;
151 -> 153 ;
154 [label="gini = 0.0\nsamples = 1\nvalue = [0, 1]\nclass = 1: bad", fillcolor="#399de5"] ;
153 -> 154 ;
155 [label="gini = 0.0\nsamples = 1\nvalue = [1, 0]\nclass = 0: good", fillcolor="#e58139"] ;
153 -> 155 ;
156 [label="Monthly pay <= 0.01\ngini = 0.38\nsamples = 6\nvalue = [2, 6]\nclass = 1: bad", fillcolor="#7bbeee"] ;
144 -> 156 ;
157 [label="Monthly pay <= 0.01\ngini = 0.5\nsamples = 2\nvalue = [1, 1]\nclass = 0: good", fillcolor="#ffffff"] ;
156 -> 157 ;
158 [label="gini = 0.0\nsamples = 1\nvalue = [0, 1]\nclass = 1: bad", fillcolor="#399de5"] ;
157 -> 158 ;
159 [label="gini = 0.0\nsamples = 1\nvalue = [1, 0]\nclass = 0: good", fillcolor="#e58139"] ;
157 -> 159 ;
160 [label="Credit amount <= 0.06\ngini = 0.28\nsamples = 4\nvalue = [1, 5]\nclass = 1: bad", fillcolor="#61b1ea"] ;
156 -> 160 ;
161 [label="Monthly pay <= 0.02\ngini = 0.44\nsamples = 2\nvalue = [1, 2]\nclass = 1: bad", fillcolor="#9ccef2"] ;
160 -> 161 ;
162 [label="gini = 0.0\nsamples = 1\nvalue = [0, 2]\nclass = 1: bad", fillcolor="#399de5"] ;
161 -> 162 ;
163 [label="gini = 0.0\nsamples = 1\nvalue = [1, 0]\nclass = 0: good", fillcolor="#e58139"] ;
161 -> 163 ;
164 [label="gini = 0.0\nsamples = 2\nvalue = [0, 3]\nclass = 1: bad", fillcolor="#399de5"] ;
160 -> 164 ;
165 [label="Monthly pay <= 0.02\ngini = 0.3\nsamples = 8\nvalue = [9, 2]\nclass = 0: good", fillcolor="#eb9d65"] ;
143 -> 165 ;
166 [label="gini = 0.0\nsamples = 4\nvalue = [7, 0]\nclass = 0: good", fillcolor="#e58139"] ;
165 -> 166 ;
167 [label="Credit amount <= 0.11\ngini = 0.5\nsamples = 4\nvalue = [2, 2]\nclass = 0: good", fillcolor="#ffffff"] ;
165 -> 167 ;
168 [label="gini = 0.0\nsamples = 1\nvalue = [1, 0]\nclass = 0: good", fillcolor="#e58139"] ;
167 -> 168 ;
169 [label="Credit amount <= 0.12\ngini = 0.44\nsamples = 3\nvalue = [1, 2]\nclass = 1: bad", fillcolor="#9ccef2"] ;
167 -> 169 ;
170 [label="gini = 0.0\nsamples = 2\nvalue = [0, 2]\nclass = 1: bad", fillcolor="#399de5"] ;
169 -> 170 ;
171 [label="gini = 0.0\nsamples = 1\nvalue = [1, 0]\nclass = 0: good", fillcolor="#e58139"] ;
169 -> 171 ;
172 [label="gini = 0.0\nsamples = 1\nvalue = [0, 2]\nclass = 1: bad", fillcolor="#399de5"] ;
142 -> 172 ;
173 [label="gini = 0.0\nsamples = 4\nvalue = [4, 0]\nclass = 0: good", fillcolor="#e58139"] ;
141 -> 173 ;
174 [label="gini = 0.0\nsamples = 2\nvalue = [0, 3]\nclass = 1: bad", fillcolor="#399de5"] ;
140 -> 174 ;
175 [label="gini = 0.0\nsamples = 1\nvalue = [3, 0]\nclass = 0: good", fillcolor="#e58139"] ;
139 -> 175 ;
176 [label="gini = 0.0\nsamples = 1\nvalue = [0, 2]\nclass = 1: bad", fillcolor="#399de5"] ;
138 -> 176 ;
177 [label="Credit amount <= 0.24\ngini = 0.47\nsamples = 63\nvalue = [38, 60]\nclass = 1: bad", fillcolor="#b6dbf5"] ;
135 -> 177 ;
178 [label="Credit amount <= 0.05\ngini = 0.41\nsamples = 52\nvalue = [22, 55]\nclass = 1: bad", fillcolor="#88c4ef"] ;
177 -> 178 ;
179 [label="Monthly pay <= 0.03\ngini = 0.15\nsamples = 13\nvalue = [2, 23]\nclass = 1: bad", fillcolor="#4aa6e7"] ;
178 -> 179 ;
180 [label="gini = 0.0\nsamples = 7\nvalue = [0, 15]\nclass = 1: bad", fillcolor="#399de5"] ;
179 -> 180 ;
181 [label="Credit amount <= 0.04\ngini = 0.32\nsamples = 6\nvalue = [2, 8]\nclass = 1: bad", fillcolor="#6ab6ec"] ;
179 -> 181 ;
182 [label="Monthly pay <= 0.03\ngini = 0.5\nsamples = 2\nvalue = [2, 2]\nclass = 0: good", fillcolor="#ffffff"] ;
181 -> 182 ;
183 [label="gini = 0.0\nsamples = 1\nvalue = [2, 0]\nclass = 0: good", fillcolor="#e58139"] ;
182 -> 183 ;
184 [label="gini = 0.0\nsamples = 1\nvalue = [0, 2]\nclass = 1: bad", fillcolor="#399de5"] ;
182 -> 184 ;
185 [label="gini = 0.0\nsamples = 4\nvalue = [0, 6]\nclass = 1: bad", fillcolor="#399de5"] ;
181 -> 185 ;
186 [label="Monthly pay <= 0.03\ngini = 0.47\nsamples = 39\nvalue = [20, 32]\nclass = 1: bad", fillcolor="#b5daf5"] ;
178 -> 186 ;
187 [label="Monthly pay <= 0.03\ngini = 0.33\nsamples = 15\nvalue = [4, 15]\nclass = 1: bad", fillcolor="#6eb7ec"] ;
186 -> 187 ;
188 [label="Monthly pay <= 0.02\ngini = 0.48\nsamples = 5\nvalue = [3, 2]\nclass = 0: good", fillcolor="#f6d5bd"] ;
187 -> 188 ;
189 [label="gini = 0.0\nsamples = 2\nvalue = [0, 2]\nclass = 1: bad", fillcolor="#399de5"] ;
188 -> 189 ;
190 [label="gini = 0.0\nsamples = 3\nvalue = [3, 0]\nclass = 0: good", fillcolor="#e58139"] ;
188 -> 190 ;
191 [label="Credit amount <= 0.07\ngini = 0.13\nsamples = 10\nvalue = [1, 13]\nclass = 1: bad", fillcolor="#48a5e7"] ;
187 -> 191 ;
192 [label="Credit amount <= 0.07\ngini = 0.5\nsamples = 2\nvalue = [1, 1]\nclass = 0: good", fillcolor="#ffffff"] ;
191 -> 192 ;
193 [label="gini = 0.0\nsamples = 1\nvalue = [0, 1]\nclass = 1: bad", fillcolor="#399de5"] ;
192 -> 193 ;
194 [label="gini = 0.0\nsamples = 1\nvalue = [1, 0]\nclass = 0: good", fillcolor="#e58139"] ;
192 -> 194 ;
195 [label="gini = 0.0\nsamples = 8\nvalue = [0, 12]\nclass = 1: bad", fillcolor="#399de5"] ;
191 -> 195 ;
196 [label="Credit amount <= 0.07\ngini = 0.5\nsamples = 24\nvalue = [16, 17]\nclass = 1: bad", fillcolor="#f3f9fd"] ;
186 -> 196 ;
197 [label="Credit amount <= 0.06\ngini = 0.32\nsamples = 4\nvalue = [1, 4]\nclass = 1: bad", fillcolor="#6ab6ec"] ;
196 -> 197 ;
198 [label="gini = 0.0\nsamples = 1\nvalue = [1, 0]\nclass = 0: good", fillcolor="#e58139"] ;
197 -> 198 ;
199 [label="gini = 0.0\nsamples = 3\nvalue = [0, 4]\nclass = 1: bad", fillcolor="#399de5"] ;
197 -> 199 ;
200 [label="Credit amount <= 0.1\ngini = 0.5\nsamples = 20\nvalue = [15, 13]\nclass = 0: good", fillcolor="#fceee5"] ;
196 -> 200 ;
201 [label="Credit amount <= 0.08\ngini = 0.22\nsamples = 5\nvalue = [7, 1]\nclass = 0: good", fillcolor="#e99355"] ;
200 -> 201 ;
202 [label="Monthly pay <= 0.04\ngini = 0.5\nsamples = 2\nvalue = [1, 1]\nclass = 0: good", fillcolor="#ffffff"] ;
201 -> 202 ;
203 [label="gini = 0.0\nsamples = 1\nvalue = [1, 0]\nclass = 0: good", fillcolor="#e58139"] ;
202 -> 203 ;
204 [label="gini = 0.0\nsamples = 1\nvalue = [0, 1]\nclass = 1: bad", fillcolor="#399de5"] ;
202 -> 204 ;
205 [label="gini = 0.0\nsamples = 3\nvalue = [6, 0]\nclass = 0: good", fillcolor="#e58139"] ;
201 -> 205 ;
206 [label="Credit amount <= 0.13\ngini = 0.48\nsamples = 15\nvalue = [8, 12]\nclass = 1: bad", fillcolor="#bddef6"] ;
200 -> 206 ;
207 [label="gini = 0.0\nsamples = 3\nvalue = [0, 4]\nclass = 1: bad", fillcolor="#399de5"] ;
206 -> 207 ;
208 [label="Credit amount <= 0.14\ngini = 0.5\nsamples = 12\nvalue = [8, 8]\nclass = 0: good", fillcolor="#ffffff"] ;
206 -> 208 ;
209 [label="Monthly pay <= 0.04\ngini = 0.32\nsamples = 3\nvalue = [4, 1]\nclass = 0: good", fillcolor="#eca06a"] ;
208 -> 209 ;
210 [label="Credit amount <= 0.14\ngini = 0.5\nsamples = 2\nvalue = [1, 1]\nclass = 0: good", fillcolor="#ffffff"] ;
209 -> 210 ;
211 [label="gini = 0.0\nsamples = 1\nvalue = [1, 0]\nclass = 0: good", fillcolor="#e58139"] ;
210 -> 211 ;
212 [label="gini = 0.0\nsamples = 1\nvalue = [0, 1]\nclass = 1: bad", fillcolor="#399de5"] ;
210 -> 212 ;
213 [label="gini = 0.0\nsamples = 1\nvalue = [3, 0]\nclass = 0: good", fillcolor="#e58139"] ;
209 -> 213 ;
214 [label="Credit amount <= 0.16\ngini = 0.46\nsamples = 9\nvalue = [4, 7]\nclass = 1: bad", fillcolor="#aad5f4"] ;
208 -> 214 ;
215 [label="gini = 0.0\nsamples = 2\nvalue = [0, 3]\nclass = 1: bad", fillcolor="#399de5"] ;
214 -> 215 ;
216 [label="Credit amount <= 0.18\ngini = 0.5\nsamples = 7\nvalue = [4, 4]\nclass = 0: good", fillcolor="#ffffff"] ;
214 -> 216 ;
217 [label="gini = 0.0\nsamples = 2\nvalue = [2, 0]\nclass = 0: good", fillcolor="#e58139"] ;
216 -> 217 ;
218 [label="Monthly pay <= 0.03\ngini = 0.44\nsamples = 5\nvalue = [2, 4]\nclass = 1: bad", fillcolor="#9ccef2"] ;
216 -> 218 ;
219 [label="gini = 0.0\nsamples = 1\nvalue = [1, 0]\nclass = 0: good", fillcolor="#e58139"] ;
218 -> 219 ;
220 [label="Credit amount <= 0.22\ngini = 0.32\nsamples = 4\nvalue = [1, 4]\nclass = 1: bad", fillcolor="#6ab6ec"] ;
218 -> 220 ;
221 [label="gini = 0.0\nsamples = 3\nvalue = [0, 4]\nclass = 1: bad", fillcolor="#399de5"] ;
220 -> 221 ;
222 [label="gini = 0.0\nsamples = 1\nvalue = [1, 0]\nclass = 0: good", fillcolor="#e58139"] ;
220 -> 222 ;
223 [label="Credit amount <= 0.39\ngini = 0.36\nsamples = 11\nvalue = [16, 5]\nclass = 0: good", fillcolor="#eda877"] ;
177 -> 223 ;
224 [label="Monthly pay <= 0.04\ngini = 0.27\nsamples = 10\nvalue = [16, 3]\nclass = 0: good", fillcolor="#ea995e"] ;
223 -> 224 ;
225 [label="Monthly pay <= 0.03\ngini = 0.44\nsamples = 4\nvalue = [6, 3]\nclass = 0: good", fillcolor="#f2c09c"] ;
224 -> 225 ;
226 [label="gini = 0.0\nsamples = 3\nvalue = [6, 0]\nclass = 0: good", fillcolor="#e58139"] ;
225 -> 226 ;
227 [label="gini = 0.0\nsamples = 1\nvalue = [0, 3]\nclass = 1: bad", fillcolor="#399de5"] ;
225 -> 227 ;
228 [label="gini = 0.0\nsamples = 6\nvalue = [10, 0]\nclass = 0: good", fillcolor="#e58139"] ;
224 -> 228 ;
229 [label="gini = 0.0\nsamples = 1\nvalue = [0, 2]\nclass = 1: bad", fillcolor="#399de5"] ;
223 -> 229 ;
230 [label="Credit amount <= 0.43\ngini = 0.32\nsamples = 68\nvalue = [20, 78]\nclass = 1: bad", fillcolor="#6cb6ec"] ;
134 -> 230 ;
231 [label="Credit amount <= 0.29\ngini = 0.26\nsamples = 57\nvalue = [13, 70]\nclass = 1: bad", fillcolor="#5eafea"] ;
230 -> 231 ;
232 [label="Monthly pay <= 0.05\ngini = 0.34\nsamples = 42\nvalue = [13, 46]\nclass = 1: bad", fillcolor="#71b9ec"] ;
231 -> 232 ;
233 [label="Monthly pay <= 0.05\ngini = 0.48\nsamples = 4\nvalue = [3, 2]\nclass = 0: good", fillcolor="#f6d5bd"] ;
232 -> 233 ;
234 [label="gini = 0.0\nsamples = 1\nvalue = [0, 2]\nclass = 1: bad", fillcolor="#399de5"] ;
233 -> 234 ;
235 [label="gini = 0.0\nsamples = 3\nvalue = [3, 0]\nclass = 0: good", fillcolor="#e58139"] ;
233 -> 235 ;
236 [label="Credit amount <= 0.2\ngini = 0.3\nsamples = 38\nvalue = [10, 44]\nclass = 1: bad", fillcolor="#66b3eb"] ;
232 -> 236 ;
237 [label="Monthly pay <= 0.07\ngini = 0.2\nsamples = 32\nvalue = [5, 40]\nclass = 1: bad", fillcolor="#52a9e8"] ;
236 -> 237 ;
238 [label="Monthly pay <= 0.07\ngini = 0.24\nsamples = 24\nvalue = [5, 31]\nclass = 1: bad", fillcolor="#59ade9"] ;
237 -> 238 ;
239 [label="Monthly pay <= 0.05\ngini = 0.2\nsamples = 23\nvalue = [4, 31]\nclass = 1: bad", fillcolor="#53aae8"] ;
238 -> 239 ;
240 [label="gini = 0.0\nsamples = 5\nvalue = [0, 8]\nclass = 1: bad", fillcolor="#399de5"] ;
239 -> 240 ;
241 [label="Credit amount <= 0.08\ngini = 0.25\nsamples = 18\nvalue = [4, 23]\nclass = 1: bad", fillcolor="#5baeea"] ;
239 -> 241 ;
242 [label="Credit amount <= 0.05\ngini = 0.44\nsamples = 8\nvalue = [4, 8]\nclass = 1: bad", fillcolor="#9ccef2"] ;
241 -> 242 ;
243 [label="gini = 0.0\nsamples = 3\nvalue = [0, 5]\nclass = 1: bad", fillcolor="#399de5"] ;
242 -> 243 ;
244 [label="Monthly pay <= 0.06\ngini = 0.49\nsamples = 5\nvalue = [4, 3]\nclass = 0: good", fillcolor="#f8e0ce"] ;
242 -> 244 ;
245 [label="gini = 0.0\nsamples = 2\nvalue = [3, 0]\nclass = 0: good", fillcolor="#e58139"] ;
244 -> 245 ;
246 [label="Credit amount <= 0.07\ngini = 0.38\nsamples = 3\nvalue = [1, 3]\nclass = 1: bad", fillcolor="#7bbeee"] ;
244 -> 246 ;
247 [label="gini = 0.0\nsamples = 2\nvalue = [0, 3]\nclass = 1: bad", fillcolor="#399de5"] ;
246 -> 247 ;
248 [label="gini = 0.0\nsamples = 1\nvalue = [1, 0]\nclass = 0: good", fillcolor="#e58139"] ;
246 -> 248 ;
249 [label="gini = 0.0\nsamples = 10\nvalue = [0, 15]\nclass = 1: bad", fillcolor="#399de5"] ;
241 -> 249 ;
250 [label="gini = 0.0\nsamples = 1\nvalue = [1, 0]\nclass = 0: good", fillcolor="#e58139"] ;
238 -> 250 ;
251 [label="gini = 0.0\nsamples = 8\nvalue = [0, 9]\nclass = 1: bad", fillcolor="#399de5"] ;
237 -> 251 ;
252 [label="Credit amount <= 0.22\ngini = 0.49\nsamples = 6\nvalue = [5, 4]\nclass = 0: good", fillcolor="#fae6d7"] ;
236 -> 252 ;
253 [label="gini = 0.0\nsamples = 2\nvalue = [3, 0]\nclass = 0: good", fillcolor="#e58139"] ;
252 -> 253 ;
254 [label="Monthly pay <= 0.06\ngini = 0.44\nsamples = 4\nvalue = [2, 4]\nclass = 1: bad", fillcolor="#9ccef2"] ;
252 -> 254 ;
255 [label="gini = 0.0\nsamples = 1\nvalue = [1, 0]\nclass = 0: good", fillcolor="#e58139"] ;
254 -> 255 ;
256 [label="Credit amount <= 0.27\ngini = 0.32\nsamples = 3\nvalue = [1, 4]\nclass = 1: bad", fillcolor="#6ab6ec"] ;
254 -> 256 ;
257 [label="gini = 0.0\nsamples = 2\nvalue = [0, 4]\nclass = 1: bad", fillcolor="#399de5"] ;
256 -> 257 ;
258 [label="gini = 0.0\nsamples = 1\nvalue = [1, 0]\nclass = 0: good", fillcolor="#e58139"] ;
256 -> 258 ;
259 [label="gini = 0.0\nsamples = 15\nvalue = [0, 24]\nclass = 1: bad", fillcolor="#399de5"] ;
231 -> 259 ;
260 [label="Credit amount <= 0.45\ngini = 0.5\nsamples = 11\nvalue = [7, 8]\nclass = 1: bad", fillcolor="#e6f3fc"] ;
230 -> 260 ;
261 [label="gini = 0.0\nsamples = 1\nvalue = [3, 0]\nclass = 0: good", fillcolor="#e58139"] ;
260 -> 261 ;
262 [label="Credit amount <= 0.63\ngini = 0.44\nsamples = 10\nvalue = [4, 8]\nclass = 1: bad", fillcolor="#9ccef2"] ;
260 -> 262 ;
263 [label="Monthly pay <= 0.07\ngini = 0.49\nsamples = 8\nvalue = [4, 5]\nclass = 1: bad", fillcolor="#d7ebfa"] ;
262 -> 263 ;
264 [label="gini = 0.0\nsamples = 2\nvalue = [0, 3]\nclass = 1: bad", fillcolor="#399de5"] ;
263 -> 264 ;
265 [label="Monthly pay <= 0.1\ngini = 0.44\nsamples = 6\nvalue = [4, 2]\nclass = 0: good", fillcolor="#f2c09c"] ;
263 -> 265 ;
266 [label="Credit amount <= 0.53\ngini = 0.5\nsamples = 4\nvalue = [2, 2]\nclass = 0: good", fillcolor="#ffffff"] ;
265 -> 266 ;
267 [label="gini = 0.0\nsamples = 2\nvalue = [0, 2]\nclass = 1: bad", fillcolor="#399de5"] ;
266 -> 267 ;
268 [label="gini = 0.0\nsamples = 2\nvalue = [2, 0]\nclass = 0: good", fillcolor="#e58139"] ;
266 -> 268 ;
269 [label="gini = 0.0\nsamples = 2\nvalue = [2, 0]\nclass = 0: good", fillcolor="#e58139"] ;
265 -> 269 ;
270 [label="gini = 0.0\nsamples = 2\nvalue = [0, 3]\nclass = 1: bad", fillcolor="#399de5"] ;
262 -> 270 ;
271 [label="gini = 0.0\nsamples = 10\nvalue = [19, 0]\nclass = 0: good", fillcolor="#e58139"] ;
133 -> 271 ;
272 [label="Credit amount <= 0.3\ngini = 0.5\nsamples = 186\nvalue = [154, 144]\nclass = 0: good", fillcolor="#fdf7f2"] ;
0 -> 272 [labeldistance=2.5, labelangle=-45, headlabel="False"] ;
273 [label="Credit amount <= 0.02\ngini = 0.5\nsamples = 153\nvalue = [115, 128]\nclass = 1: bad", fillcolor="#ebf5fc"] ;
272 -> 273 ;
274 [label="Monthly pay <= 0.01\ngini = 0.15\nsamples = 8\nvalue = [1, 11]\nclass = 1: bad", fillcolor="#4ba6e7"] ;
273 -> 274 ;
275 [label="Credit amount <= 0.02\ngini = 0.38\nsamples = 3\nvalue = [1, 3]\nclass = 1: bad", fillcolor="#7bbeee"] ;
274 -> 275 ;
276 [label="gini = 0.0\nsamples = 2\nvalue = [0, 3]\nclass = 1: bad", fillcolor="#399de5"] ;
275 -> 276 ;
277 [label="gini = 0.0\nsamples = 1\nvalue = [1, 0]\nclass = 0: good", fillcolor="#e58139"] ;
275 -> 277 ;
278 [label="gini = 0.0\nsamples = 5\nvalue = [0, 8]\nclass = 1: bad", fillcolor="#399de5"] ;
274 -> 278 ;
279 [label="Monthly pay <= 0.03\ngini = 0.5\nsamples = 145\nvalue = [114, 117]\nclass = 1: bad", fillcolor="#fafcfe"] ;
273 -> 279 ;
280 [label="Credit amount <= 0.08\ngini = 0.39\nsamples = 46\nvalue = [54, 19]\nclass = 0: good", fillcolor="#eead7f"] ;
279 -> 280 ;
281 [label="Credit amount <= 0.07\ngini = 0.44\nsamples = 30\nvalue = [32, 16]\nclass = 0: good", fillcolor="#f2c09c"] ;
280 -> 281 ;
282 [label="Monthly pay <= 0.01\ngini = 0.37\nsamples = 25\nvalue = [31, 10]\nclass = 0: good", fillcolor="#edaa79"] ;
281 -> 282 ;
283 [label="gini = 0.0\nsamples = 5\nvalue = [9, 0]\nclass = 0: good", fillcolor="#e58139"] ;
282 -> 283 ;
284 [label="Credit amount <= 0.06\ngini = 0.43\nsamples = 20\nvalue = [22, 10]\nclass = 0: good", fillcolor="#f1ba93"] ;
282 -> 284 ;
285 [label="Monthly pay <= 0.01\ngini = 0.49\nsamples = 15\nvalue = [13, 10]\nclass = 0: good", fillcolor="#f9e2d1"] ;
284 -> 285 ;
286 [label="gini = 0.0\nsamples = 2\nvalue = [0, 4]\nclass = 1: bad", fillcolor="#399de5"] ;
285 -> 286 ;
287 [label="Credit amount <= 0.04\ngini = 0.43\nsamples = 13\nvalue = [13, 6]\nclass = 0: good", fillcolor="#f1bb94"] ;
285 -> 287 ;
288 [label="Credit amount <= 0.03\ngini = 0.18\nsamples = 8\nvalue = [9, 1]\nclass = 0: good", fillcolor="#e88f4f"] ;
287 -> 288 ;
289 [label="Credit amount <= 0.02\ngini = 0.44\nsamples = 3\nvalue = [2, 1]\nclass = 0: good", fillcolor="#f2c09c"] ;
288 -> 289 ;
290 [label="gini = 0.0\nsamples = 2\nvalue = [2, 0]\nclass = 0: good", fillcolor="#e58139"] ;
289 -> 290 ;
291 [label="gini = 0.0\nsamples = 1\nvalue = [0, 1]\nclass = 1: bad", fillcolor="#399de5"] ;
289 -> 291 ;
292 [label="gini = 0.0\nsamples = 5\nvalue = [7, 0]\nclass = 0: good", fillcolor="#e58139"] ;
288 -> 292 ;
293 [label="Credit amount <= 0.04\ngini = 0.49\nsamples = 5\nvalue = [4, 5]\nclass = 1: bad", fillcolor="#d7ebfa"] ;
287 -> 293 ;
294 [label="gini = 0.0\nsamples = 1\nvalue = [0, 3]\nclass = 1: bad", fillcolor="#399de5"] ;
293 -> 294 ;
295 [label="Credit amount <= 0.04\ngini = 0.44\nsamples = 4\nvalue = [4, 2]\nclass = 0: good", fillcolor="#f2c09c"] ;
293 -> 295 ;
296 [label="gini = 0.0\nsamples = 1\nvalue = [2, 0]\nclass = 0: good", fillcolor="#e58139"] ;
295 -> 296 ;
297 [label="Credit amount <= 0.05\ngini = 0.5\nsamples = 3\nvalue = [2, 2]\nclass = 0: good", fillcolor="#ffffff"] ;
295 -> 297 ;
298 [label="gini = 0.0\nsamples = 2\nvalue = [0, 2]\nclass = 1: bad", fillcolor="#399de5"] ;
297 -> 298 ;
299 [label="gini = 0.0\nsamples = 1\nvalue = [2, 0]\nclass = 0: good", fillcolor="#e58139"] ;
297 -> 299 ;
300 [label="gini = 0.0\nsamples = 5\nvalue = [9, 0]\nclass = 0: good", fillcolor="#e58139"] ;
284 -> 300 ;
301 [label="Monthly pay <= 0.02\ngini = 0.24\nsamples = 5\nvalue = [1, 6]\nclass = 1: bad", fillcolor="#5aade9"] ;
281 -> 301 ;
302 [label="gini = 0.0\nsamples = 4\nvalue = [0, 6]\nclass = 1: bad", fillcolor="#399de5"] ;
301 -> 302 ;
303 [label="gini = 0.0\nsamples = 1\nvalue = [1, 0]\nclass = 0: good", fillcolor="#e58139"] ;
301 -> 303 ;
304 [label="Monthly pay <= 0.02\ngini = 0.21\nsamples = 16\nvalue = [22, 3]\nclass = 0: good", fillcolor="#e99254"] ;
280 -> 304 ;
305 [label="Credit amount <= 0.11\ngini = 0.11\nsamples = 10\nvalue = [16, 1]\nclass = 0: good", fillcolor="#e78945"] ;
304 -> 305 ;
306 [label="gini = 0.0\nsamples = 6\nvalue = [12, 0]\nclass = 0: good", fillcolor="#e58139"] ;
305 -> 306 ;
307 [label="Credit amount <= 0.12\ngini = 0.32\nsamples = 4\nvalue = [4, 1]\nclass = 0: good", fillcolor="#eca06a"] ;
305 -> 307 ;
308 [label="gini = 0.0\nsamples = 1\nvalue = [0, 1]\nclass = 1: bad", fillcolor="#399de5"] ;
307 -> 308 ;
309 [label="gini = 0.0\nsamples = 3\nvalue = [4, 0]\nclass = 0: good", fillcolor="#e58139"] ;
307 -> 309 ;
310 [label="Monthly pay <= 0.02\ngini = 0.38\nsamples = 6\nvalue = [6, 2]\nclass = 0: good", fillcolor="#eeab7b"] ;
304 -> 310 ;
311 [label="gini = 0.0\nsamples = 1\nvalue = [0, 1]\nclass = 1: bad", fillcolor="#399de5"] ;
310 -> 311 ;
312 [label="Credit amount <= 0.11\ngini = 0.24\nsamples = 5\nvalue = [6, 1]\nclass = 0: good", fillcolor="#e9965a"] ;
310 -> 312 ;
313 [label="gini = 0.0\nsamples = 2\nvalue = [3, 0]\nclass = 0: good", fillcolor="#e58139"] ;
312 -> 313 ;
314 [label="Credit amount <= 0.16\ngini = 0.38\nsamples = 3\nvalue = [3, 1]\nclass = 0: good", fillcolor="#eeab7b"] ;
312 -> 314 ;
315 [label="gini = 0.0\nsamples = 1\nvalue = [0, 1]\nclass = 1: bad", fillcolor="#399de5"] ;
314 -> 315 ;
316 [label="gini = 0.0\nsamples = 2\nvalue = [3, 0]\nclass = 0: good", fillcolor="#e58139"] ;
314 -> 316 ;
317 [label="Monthly pay <= 0.05\ngini = 0.47\nsamples = 99\nvalue = [60, 98]\nclass = 1: bad", fillcolor="#b2d9f5"] ;
279 -> 317 ;
318 [label="Monthly pay <= 0.04\ngini = 0.5\nsamples = 47\nvalue = [38, 42]\nclass = 1: bad", fillcolor="#ecf6fd"] ;
317 -> 318 ;
319 [label="Credit amount <= 0.11\ngini = 0.49\nsamples = 41\nvalue = [30, 42]\nclass = 1: bad", fillcolor="#c6e3f8"] ;
318 -> 319 ;
320 [label="Credit amount <= 0.1\ngini = 0.5\nsamples = 19\nvalue = [15, 13]\nclass = 0: good", fillcolor="#fceee5"] ;
319 -> 320 ;
321 [label="Monthly pay <= 0.04\ngini = 0.48\nsamples = 16\nvalue = [9, 13]\nclass = 1: bad", fillcolor="#c2e1f7"] ;
320 -> 321 ;
322 [label="Credit amount <= 0.05\ngini = 0.5\nsamples = 13\nvalue = [9, 9]\nclass = 0: good", fillcolor="#ffffff"] ;
321 -> 322 ;
323 [label="Credit amount <= 0.05\ngini = 0.28\nsamples = 5\nvalue = [1, 5]\nclass = 1: bad", fillcolor="#61b1ea"] ;
322 -> 323 ;
324 [label="gini = 0.0\nsamples = 3\nvalue = [0, 3]\nclass = 1: bad", fillcolor="#399de5"] ;
323 -> 324 ;
325 [label="Credit amount <= 0.05\ngini = 0.44\nsamples = 2\nvalue = [1, 2]\nclass = 1: bad", fillcolor="#9ccef2"] ;
323 -> 325 ;
326 [label="gini = 0.0\nsamples = 1\nvalue = [1, 0]\nclass = 0: good", fillcolor="#e58139"] ;
325 -> 326 ;
327 [label="gini = 0.0\nsamples = 1\nvalue = [0, 2]\nclass = 1: bad", fillcolor="#399de5"] ;
325 -> 327 ;
328 [label="Credit amount <= 0.05\ngini = 0.44\nsamples = 8\nvalue = [8, 4]\nclass = 0: good", fillcolor="#f2c09c"] ;
322 -> 328 ;
329 [label="gini = 0.0\nsamples = 1\nvalue = [4, 0]\nclass = 0: good", fillcolor="#e58139"] ;
328 -> 329 ;
330 [label="Monthly pay <= 0.04\ngini = 0.5\nsamples = 7\nvalue = [4, 4]\nclass = 0: good", fillcolor="#ffffff"] ;
328 -> 330 ;
331 [label="Monthly pay <= 0.03\ngini = 0.44\nsamples = 6\nvalue = [2, 4]\nclass = 1: bad", fillcolor="#9ccef2"] ;
330 -> 331 ;
332 [label="Monthly pay <= 0.03\ngini = 0.5\nsamples = 4\nvalue = [2, 2]\nclass = 0: good", fillcolor="#ffffff"] ;
331 -> 332 ;
333 [label="gini = 0.0\nsamples = 1\nvalue = [0, 1]\nclass = 1: bad", fillcolor="#399de5"] ;
332 -> 333 ;
334 [label="Monthly pay <= 0.03\ngini = 0.44\nsamples = 3\nvalue = [2, 1]\nclass = 0: good", fillcolor="#f2c09c"] ;
332 -> 334 ;
335 [label="gini = 0.0\nsamples = 1\nvalue = [1, 0]\nclass = 0: good", fillcolor="#e58139"] ;
334 -> 335 ;
336 [label="Monthly pay <= 0.03\ngini = 0.5\nsamples = 2\nvalue = [1, 1]\nclass = 0: good", fillcolor="#ffffff"] ;
334 -> 336 ;
337 [label="gini = 0.0\nsamples = 1\nvalue = [0, 1]\nclass = 1: bad", fillcolor="#399de5"] ;
336 -> 337 ;
338 [label="gini = 0.0\nsamples = 1\nvalue = [1, 0]\nclass = 0: good", fillcolor="#e58139"] ;
336 -> 338 ;
339 [label="gini = 0.0\nsamples = 2\nvalue = [0, 2]\nclass = 1: bad", fillcolor="#399de5"] ;
331 -> 339 ;
340 [label="gini = 0.0\nsamples = 1\nvalue = [2, 0]\nclass = 0: good", fillcolor="#e58139"] ;
330 -> 340 ;
341 [label="gini = 0.0\nsamples = 3\nvalue = [0, 4]\nclass = 1: bad", fillcolor="#399de5"] ;
321 -> 341 ;
342 [label="gini = 0.0\nsamples = 3\nvalue = [6, 0]\nclass = 0: good", fillcolor="#e58139"] ;
320 -> 342 ;
343 [label="Monthly pay <= 0.03\ngini = 0.45\nsamples = 22\nvalue = [15, 29]\nclass = 1: bad", fillcolor="#9fd0f2"] ;
319 -> 343 ;
344 [label="Monthly pay <= 0.03\ngini = 0.44\nsamples = 3\nvalue = [4, 2]\nclass = 0: good", fillcolor="#f2c09c"] ;
343 -> 344 ;
345 [label="gini = 0.0\nsamples = 1\nvalue = [0, 2]\nclass = 1: bad", fillcolor="#399de5"] ;
344 -> 345 ;
346 [label="gini = 0.0\nsamples = 2\nvalue = [4, 0]\nclass = 0: good", fillcolor="#e58139"] ;
344 -> 346 ;
347 [label="Credit amount <= 0.16\ngini = 0.41\nsamples = 19\nvalue = [11, 27]\nclass = 1: bad", fillcolor="#8ac5f0"] ;
343 -> 347 ;
348 [label="Monthly pay <= 0.03\ngini = 0.47\nsamples = 13\nvalue = [11, 18]\nclass = 1: bad", fillcolor="#b2d9f5"] ;
347 -> 348 ;
349 [label="gini = 0.0\nsamples = 1\nvalue = [0, 3]\nclass = 1: bad", fillcolor="#399de5"] ;
348 -> 349 ;
350 [label="Monthly pay <= 0.03\ngini = 0.49\nsamples = 12\nvalue = [11, 15]\nclass = 1: bad", fillcolor="#cae5f8"] ;
348 -> 350 ;
351 [label="Monthly pay <= 0.03\ngini = 0.32\nsamples = 3\nvalue = [4, 1]\nclass = 0: good", fillcolor="#eca06a"] ;
350 -> 351 ;
352 [label="Credit amount <= 0.12\ngini = 0.5\nsamples = 2\nvalue = [1, 1]\nclass = 0: good", fillcolor="#ffffff"] ;
351 -> 352 ;
353 [label="gini = 0.0\nsamples = 1\nvalue = [1, 0]\nclass = 0: good", fillcolor="#e58139"] ;
352 -> 353 ;
354 [label="gini = 0.0\nsamples = 1\nvalue = [0, 1]\nclass = 1: bad", fillcolor="#399de5"] ;
352 -> 354 ;
355 [label="gini = 0.0\nsamples = 1\nvalue = [3, 0]\nclass = 0: good", fillcolor="#e58139"] ;
351 -> 355 ;
356 [label="Monthly pay <= 0.04\ngini = 0.44\nsamples = 9\nvalue = [7, 14]\nclass = 1: bad", fillcolor="#9ccef2"] ;
350 -> 356 ;
357 [label="Credit amount <= 0.15\ngini = 0.28\nsamples = 5\nvalue = [2, 10]\nclass = 1: bad", fillcolor="#61b1ea"] ;
356 -> 357 ;
358 [label="gini = 0.0\nsamples = 4\nvalue = [0, 10]\nclass = 1: bad", fillcolor="#399de5"] ;
357 -> 358 ;
359 [label="gini = 0.0\nsamples = 1\nvalue = [2, 0]\nclass = 0: good", fillcolor="#e58139"] ;
357 -> 359 ;
360 [label="Monthly pay <= 0.04\ngini = 0.49\nsamples = 4\nvalue = [5, 4]\nclass = 0: good", fillcolor="#fae6d7"] ;
356 -> 360 ;
361 [label="gini = 0.0\nsamples = 1\nvalue = [4, 0]\nclass = 0: good", fillcolor="#e58139"] ;
360 -> 361 ;
362 [label="Credit amount <= 0.16\ngini = 0.32\nsamples = 3\nvalue = [1, 4]\nclass = 1: bad", fillcolor="#6ab6ec"] ;
360 -> 362 ;
363 [label="gini = 0.0\nsamples = 2\nvalue = [0, 4]\nclass = 1: bad", fillcolor="#399de5"] ;
362 -> 363 ;
364 [label="gini = 0.0\nsamples = 1\nvalue = [1, 0]\nclass = 0: good", fillcolor="#e58139"] ;
362 -> 364 ;
365 [label="gini = 0.0\nsamples = 6\nvalue = [0, 9]\nclass = 1: bad", fillcolor="#399de5"] ;
347 -> 365 ;
366 [label="gini = 0.0\nsamples = 6\nvalue = [8, 0]\nclass = 0: good", fillcolor="#e58139"] ;
318 -> 366 ;
367 [label="Credit amount <= 0.13\ngini = 0.4\nsamples = 52\nvalue = [22, 56]\nclass = 1: bad", fillcolor="#87c4ef"] ;
317 -> 367 ;
368 [label="Monthly pay <= 0.07\ngini = 0.28\nsamples = 23\nvalue = [6, 29]\nclass = 1: bad", fillcolor="#62b1ea"] ;
367 -> 368 ;
369 [label="Credit amount <= 0.05\ngini = 0.36\nsamples = 14\nvalue = [6, 19]\nclass = 1: bad", fillcolor="#78bced"] ;
368 -> 369 ;
370 [label="gini = 0.0\nsamples = 3\nvalue = [0, 5]\nclass = 1: bad", fillcolor="#399de5"] ;
369 -> 370 ;
371 [label="Monthly pay <= 0.07\ngini = 0.42\nsamples = 11\nvalue = [6, 14]\nclass = 1: bad", fillcolor="#8ec7f0"] ;
369 -> 371 ;
372 [label="Credit amount <= 0.08\ngini = 0.35\nsamples = 9\nvalue = [4, 14]\nclass = 1: bad", fillcolor="#72b9ec"] ;
371 -> 372 ;
373 [label="Credit amount <= 0.06\ngini = 0.5\nsamples = 3\nvalue = [3, 3]\nclass = 0: good", fillcolor="#ffffff"] ;
372 -> 373 ;
374 [label="gini = 0.0\nsamples = 1\nvalue = [0, 3]\nclass = 1: bad", fillcolor="#399de5"] ;
373 -> 374 ;
375 [label="gini = 0.0\nsamples = 2\nvalue = [3, 0]\nclass = 0: good", fillcolor="#e58139"] ;
373 -> 375 ;
376 [label="Monthly pay <= 0.06\ngini = 0.15\nsamples = 6\nvalue = [1, 11]\nclass = 1: bad", fillcolor="#4ba6e7"] ;
372 -> 376 ;
377 [label="gini = 0.0\nsamples = 4\nvalue = [0, 9]\nclass = 1: bad", fillcolor="#399de5"] ;
376 -> 377 ;
378 [label="Monthly pay <= 0.06\ngini = 0.44\nsamples = 2\nvalue = [1, 2]\nclass = 1: bad", fillcolor="#9ccef2"] ;
376 -> 378 ;
379 [label="gini = 0.0\nsamples = 1\nvalue = [1, 0]\nclass = 0: good", fillcolor="#e58139"] ;
378 -> 379 ;
380 [label="gini = 0.0\nsamples = 1\nvalue = [0, 2]\nclass = 1: bad", fillcolor="#399de5"] ;
378 -> 380 ;
381 [label="gini = 0.0\nsamples = 2\nvalue = [2, 0]\nclass = 0: good", fillcolor="#e58139"] ;
371 -> 381 ;
382 [label="gini = 0.0\nsamples = 9\nvalue = [0, 10]\nclass = 1: bad", fillcolor="#399de5"] ;
368 -> 382 ;
383 [label="Credit amount <= 0.18\ngini = 0.47\nsamples = 29\nvalue = [16, 27]\nclass = 1: bad", fillcolor="#aed7f4"] ;
367 -> 383 ;
384 [label="Monthly pay <= 0.11\ngini = 0.44\nsamples = 10\nvalue = [8, 4]\nclass = 0: good", fillcolor="#f2c09c"] ;
383 -> 384 ;
385 [label="Credit amount <= 0.15\ngini = 0.24\nsamples = 6\nvalue = [6, 1]\nclass = 0: good", fillcolor="#e9965a"] ;
384 -> 385 ;
386 [label="gini = 0.0\nsamples = 2\nvalue = [3, 0]\nclass = 0: good", fillcolor="#e58139"] ;
385 -> 386 ;
387 [label="Credit amount <= 0.17\ngini = 0.38\nsamples = 4\nvalue = [3, 1]\nclass = 0: good", fillcolor="#eeab7b"] ;
385 -> 387 ;
388 [label="gini = 0.0\nsamples = 1\nvalue = [0, 1]\nclass = 1: bad", fillcolor="#399de5"] ;
387 -> 388 ;
389 [label="gini = 0.0\nsamples = 3\nvalue = [3, 0]\nclass = 0: good", fillcolor="#e58139"] ;
387 -> 389 ;
390 [label="Credit amount <= 0.16\ngini = 0.48\nsamples = 4\nvalue = [2, 3]\nclass = 1: bad", fillcolor="#bddef6"] ;
384 -> 390 ;
391 [label="gini = 0.0\nsamples = 2\nvalue = [0, 2]\nclass = 1: bad", fillcolor="#399de5"] ;
390 -> 391 ;
392 [label="Monthly pay <= 0.19\ngini = 0.44\nsamples = 2\nvalue = [2, 1]\nclass = 0: good", fillcolor="#f2c09c"] ;
390 -> 392 ;
393 [label="gini = 0.0\nsamples = 1\nvalue = [0, 1]\nclass = 1: bad", fillcolor="#399de5"] ;
392 -> 393 ;
394 [label="gini = 0.0\nsamples = 1\nvalue = [2, 0]\nclass = 0: good", fillcolor="#e58139"] ;
392 -> 394 ;
395 [label="Credit amount <= 0.2\ngini = 0.38\nsamples = 19\nvalue = [8, 23]\nclass = 1: bad", fillcolor="#7ebfee"] ;
383 -> 395 ;
396 [label="gini = 0.0\nsamples = 8\nvalue = [0, 12]\nclass = 1: bad", fillcolor="#399de5"] ;
395 -> 396 ;
397 [label="Credit amount <= 0.21\ngini = 0.49\nsamples = 11\nvalue = [8, 11]\nclass = 1: bad", fillcolor="#c9e4f8"] ;
395 -> 397 ;
398 [label="Monthly pay <= 0.1\ngini = 0.22\nsamples = 4\nvalue = [7, 1]\nclass = 0: good", fillcolor="#e99355"] ;
397 -> 398 ;
399 [label="gini = 0.0\nsamples = 3\nvalue = [7, 0]\nclass = 0: good", fillcolor="#e58139"] ;
398 -> 399 ;
400 [label="gini = 0.0\nsamples = 1\nvalue = [0, 1]\nclass = 1: bad", fillcolor="#399de5"] ;
398 -> 400 ;
401 [label="Credit amount <= 0.25\ngini = 0.17\nsamples = 7\nvalue = [1, 10]\nclass = 1: bad", fillcolor="#4da7e8"] ;
397 -> 401 ;
402 [label="gini = 0.0\nsamples = 4\nvalue = [0, 8]\nclass = 1: bad", fillcolor="#399de5"] ;
401 -> 402 ;
403 [label="Monthly pay <= 0.13\ngini = 0.44\nsamples = 3\nvalue = [1, 2]\nclass = 1: bad", fillcolor="#9ccef2"] ;
401 -> 403 ;
404 [label="gini = 0.0\nsamples = 2\nvalue = [0, 2]\nclass = 1: bad", fillcolor="#399de5"] ;
403 -> 404 ;
405 [label="gini = 0.0\nsamples = 1\nvalue = [1, 0]\nclass = 0: good", fillcolor="#e58139"] ;
403 -> 405 ;
406 [label="Credit amount <= 0.42\ngini = 0.41\nsamples = 33\nvalue = [39, 16]\nclass = 0: good", fillcolor="#f0b58a"] ;
272 -> 406 ;
407 [label="Monthly pay <= 0.08\ngini = 0.28\nsamples = 18\nvalue = [25, 5]\nclass = 0: good", fillcolor="#ea9a61"] ;
406 -> 407 ;
408 [label="gini = 0.0\nsamples = 12\nvalue = [21, 0]\nclass = 0: good", fillcolor="#e58139"] ;
407 -> 408 ;
409 [label="Monthly pay <= 0.13\ngini = 0.49\nsamples = 6\nvalue = [4, 5]\nclass = 1: bad", fillcolor="#d7ebfa"] ;
407 -> 409 ;
410 [label="gini = 0.0\nsamples = 4\nvalue = [0, 5]\nclass = 1: bad", fillcolor="#399de5"] ;
409 -> 410 ;
411 [label="gini = 0.0\nsamples = 2\nvalue = [4, 0]\nclass = 0: good", fillcolor="#e58139"] ;
409 -> 411 ;
412 [label="Monthly pay <= 0.07\ngini = 0.49\nsamples = 15\nvalue = [14, 11]\nclass = 0: good", fillcolor="#f9e4d5"] ;
406 -> 412 ;
413 [label="gini = 0.0\nsamples = 1\nvalue = [0, 3]\nclass = 1: bad", fillcolor="#399de5"] ;
412 -> 413 ;
414 [label="Credit amount <= 0.71\ngini = 0.46\nsamples = 14\nvalue = [14, 8]\nclass = 0: good", fillcolor="#f4c9aa"] ;
412 -> 414 ;
415 [label="Monthly pay <= 0.1\ngini = 0.4\nsamples = 11\nvalue = [13, 5]\nclass = 0: good", fillcolor="#efb185"] ;
414 -> 415 ;
416 [label="Credit amount <= 0.56\ngini = 0.17\nsamples = 7\nvalue = [10, 1]\nclass = 0: good", fillcolor="#e88e4d"] ;
415 -> 416 ;
417 [label="gini = 0.0\nsamples = 5\nvalue = [8, 0]\nclass = 0: good", fillcolor="#e58139"] ;
416 -> 417 ;
418 [label="Monthly pay <= 0.09\ngini = 0.44\nsamples = 2\nvalue = [2, 1]\nclass = 0: good", fillcolor="#f2c09c"] ;
416 -> 418 ;
419 [label="gini = 0.0\nsamples = 1\nvalue = [0, 1]\nclass = 1: bad", fillcolor="#399de5"] ;
418 -> 419 ;
420 [label="gini = 0.0\nsamples = 1\nvalue = [2, 0]\nclass = 0: good", fillcolor="#e58139"] ;
418 -> 420 ;
421 [label="Monthly pay <= 0.14\ngini = 0.49\nsamples = 4\nvalue = [3, 4]\nclass = 1: bad", fillcolor="#cee6f8"] ;
415 -> 421 ;
422 [label="gini = 0.0\nsamples = 2\nvalue = [0, 4]\nclass = 1: bad", fillcolor="#399de5"] ;
421 -> 422 ;
423 [label="gini = 0.0\nsamples = 2\nvalue = [3, 0]\nclass = 0: good", fillcolor="#e58139"] ;
421 -> 423 ;
424 [label="Credit amount <= 0.79\ngini = 0.38\nsamples = 3\nvalue = [1, 3]\nclass = 1: bad", fillcolor="#7bbeee"] ;
414 -> 424 ;
425 [label="gini = 0.0\nsamples = 1\nvalue = [0, 2]\nclass = 1: bad", fillcolor="#399de5"] ;
424 -> 425 ;
426 [label="Credit amount <= 0.83\ngini = 0.5\nsamples = 2\nvalue = [1, 1]\nclass = 0: good", fillcolor="#ffffff"] ;
424 -> 426 ;
427 [label="gini = 0.0\nsamples = 1\nvalue = [1, 0]\nclass = 0: good", fillcolor="#e58139"] ;
426 -> 427 ;
428 [label="gini = 0.0\nsamples = 1\nvalue = [0, 1]\nclass = 1: bad", fillcolor="#399de5"] ;
426 -> 428 ;
}